{
  "content": "<PMML xmlns:xsi=\"http://www.w3.org/2001/XMLSchema-instance\" version=\"4.2\" xsi:schemaLocation=\"http://www.dmg.org/PMML-4_2 http://www.dmg.org/v4-2-1/pmml-4-2.xsd\" xmlns=\"http://www.dmg.org/PMML-4_2\">\n  <Header/>\n  <DataDictionary numberOfFields=\"3\">\n    <DataField name=\"result\" optype=\"continuous\" dataType=\"double\"/>\n    <DataField name=\"applicantName\" optype=\"categorical\" dataType=\"string\">\n      <Value value=\"John\"/>\n      <Value value=\"Paul\"/>\n      <Value value=\"George\"/>\n    </DataField>\n    <DataField name=\"approved\" optype=\"categorical\" dataType=\"boolean\" />\n  </DataDictionary>\n  <RegressionModel modelName=\"LoanApprovalRegression\" functionName=\"regression\">\n    <MiningSchema>\n      <MiningField name=\"result\" usageType=\"predicted\" invalidValueTreatment=\"returnInvalid\"/>\n      <MiningField name=\"applicantName\" usageType=\"active\" invalidValueTreatment=\"returnInvalid\"/>\n      <MiningField name=\"approved\" usageType=\"active\" invalidValueTreatment=\"returnInvalid\"/>\n    </MiningSchema>\n    <Output>\n      <OutputField name=\"Predicted_result\" optype=\"continuous\" dataType=\"double\" feature=\"predictedValue\"/>\n    </Output>\n    <RegressionTable intercept=\"-22.1\">\n      <CategoricalPredictor name=\"applicantName\" value=\"John\" coefficient=\"5.5\"/>\n      <CategoricalPredictor name=\"applicantName\" value=\"Paul\" coefficient=\"15\"/>\n      <CategoricalPredictor name=\"applicantName\" value=\"George\" coefficient=\"12\"/>\n      <CategoricalPredictor name=\"approved\" value=\"true\" coefficient=\"0\"/>\n      <CategoricalPredictor name=\"approved\" value=\"false\" coefficient=\"20\"/>\n    </RegressionTable>\n  </RegressionModel>\n</PMML>\n",
  "fileName": "LoanApprovalRegression.pmml"
}
